<?xml version="1.0"?>
<opencv_storage>
<cascade>
  <stageType>BOOST</stageType>
  <featureType>LBP</featureType>
  <height>64</height>
  <width>64</width>
  <stageParams>
    <boostType>GAB</boostType>
    <minHitRate>9.9900001287460327e-01</minHitRate>
    <maxFalseAlarm>3.0000001192092896e-01</maxFalseAlarm>
    <weightTrimRate>9.4999999999999996e-01</weightTrimRate>
    <maxDepth>1</maxDepth>
    <maxWeakCount>100</maxWeakCount></stageParams>
  <featureParams>
    <maxCatCount>256</maxCatCount>
    <featSize>1</featSize></featureParams>
  <stageNum>3</stageNum>
  <stages>
    <!-- stage 0 -->
    <_>
      <maxWeakCount>2</maxWeakCount>
      <stageThreshold>-2.3649801313877106e-01</stageThreshold>
      <weakClassifiers>
        <_>
          <internalNodes>
            0 -1 1 -733752828 1359036673 16392 1476493456 1073774608
            -2147418111 -2147368832 -484999157</internalNodes>
          <leafValues>
            -9.6470588445663452e-01 7.4000000953674316e-01</leafValues></_>
        <_>
          <internalNodes>
            0 -1 4 -784216690 -1056702207 -1593819136 1677721616
            -1073704820 -1742667776 -1608515442 -1954348669</internalNodes>
          <leafValues>
            -9.2321336269378662e-01 7.2820788621902466e-01</leafValues></_></weakClassifiers></_>
    <!-- stage 1 -->
    <_>
      <maxWeakCount>2</maxWeakCount>
      <stageThreshold>1.8298974260687828e-02</stageThreshold>
      <weakClassifiers>
        <_>
          <internalNodes>
            0 -1 3 -2130689904 0 -2147483644 335675392 2048 0 512
            -536215551</internalNodes>
          <leafValues>
            -9.0476191043853760e-01 1.</leafValues></_>
        <_>
          <internalNodes>
            0 -1 2 211 1359036416 0 1090519040 -2147483646 -2147483648
            131072 1753219602</internalNodes>
          <leafValues>
            -9.5928466320037842e-01 9.2306089401245117e-01</leafValues></_></weakClassifiers></_>
    <!-- stage 2 -->
    <_>
      <maxWeakCount>1</maxWeakCount>
      <stageThreshold>1.</stageThreshold>
      <weakClassifiers>
        <_>
          <internalNodes>
            0 -1 0 0 0 0 0 0 0 -2147483648 0</internalNodes>
          <leafValues>
            -1. 1.</leafValues></_></weakClassifiers></_></stages>
  <features>
    <_>
      <rect>
        0 0 1 1</rect></_>
    <_>
      <rect>
        0 2 9 19</rect></_>
    <_>
      <rect>
        1 28 13 11</rect></_>
    <_>
      <rect>
        21 61 1 1</rect></_>
    <_>
      <rect>
        40 38 8 5</rect></_></features></cascade>
</opencv_storage>
